{
    "biases": [
        {
            "cols": 1,
            "data": [
                [
                    -0.975128845350246
                ],
                [
                    -0.951113790741015
                ],
                [
                    0.5796344777426401
                ],
                [
                    0.24510591336237963
                ]
            ],
            "rows": 4
        },
        {
            "cols": 1,
            "data": [
                [
                    0.6816888848891767
                ],
                [
                    -0.5475282659511236
                ],
                [
                    -0.5814336113220393
                ],
                [
                    0.25127096628866497
                ],
                [
                    0.4022905420905514
                ]
            ],
            "rows": 5
        },
        {
            "cols": 1,
            "data": [
                [
                    0.3790263102364311
                ],
                [
                    0.005572007593005912
                ]
            ],
            "rows": 2
        }
    ],
    "hidden_layers": [],
    "hidden_layers_array": [
        4,
        5
    ],
    "hidden_layers_count": 2,
    "inputs": 3,
    "learning_rate": 0.2,
    "outputs": 2,
    "weights": [
        {
            "cols": 3,
            "data": [
                [
                    -0.5582911236664712,
                    -0.5869590452885474,
                    0.8525536070932538
                ],
                [
                    0.5859645640923696,
                    -0.060919973660040094,
                    0.5097683488702045
                ],
                [
                    -0.6175924988115209,
                    0.37104557855840925,
                    -0.3719142057029037
                ],
                [
                    -0.5014016201223392,
                    0.797543448045912,
                    -0.21966265992816325
                ]
            ],
            "rows": 4
        },
        {
            "cols": 4,
            "data": [
                [
                    0.8754632156932871,
                    0.13974497191728807,
                    0.617765090279627,
                    0.6072213339828076
                ],
                [
                    -0.02222318611569074,
                    0.051539239173854945,
                    -0.19818976606969807,
                    -0.09189352950293483
                ],
                [
                    0.9064670308434382,
                    0.4422389542590135,
                    -0.6233421288781837,
                    0.9925997117240895
                ],
                [
                    -0.9858885305960083,
                    0.5964976769679802,
                    -0.41377781006744163,
                    -0.10269706016231361
                ],
                [
                    0.3882202630431153,
                    -0.13996943833283138,
                    -0.6321945812228924,
                    0.8285377525020785
                ]
            ],
            "rows": 5
        },
        {
            "cols": 5,
            "data": [
                [
                    -0.828414537858092,
                    -0.7641442916712027,
                    0.19495508852056553,
                    0.534138012670327,
                    -0.4937635169894472
                ],
                [
                    -0.5633830695837998,
                    -0.330626504723186,
                    -0.1698759212063654,
                    0.5000179061783572,
                    0.9575523873594063
                ]
            ],
            "rows": 2
        }
    ]
}